Language model created by QuickLM on Fri Apr 17 08:05:50 EDT 2020
Copyright (c) 1996-2010 Carnegie Mellon University and Alexander I. Rudnicky

The model is in standard ARPA format, designed by Doug Paul while he was at MITRE.

The code that was used to produce this language model is available in Open Source.
Please visit http://www.speech.cs.cmu.edu/tools/ for more information

The (fixed) discount mass is 0.5. The backoffs are computed using the ratio method.
This model based on a corpus of 10 sentences and 27 words

\data\
ngram 1=27
ngram 2=37
ngram 3=33

\1-grams:
-1.0645 </s> -0.3010
-1.0645 <s> -0.2619
-2.0645 A -0.2973
-1.7634 ARE -0.2858
-2.0645 BOOKSHELF -0.2619
-2.0645 CAN -0.2858
-2.0645 CUBE -0.2619
-2.0645 DO -0.2935
-1.7634 FOR -0.2935
-2.0645 FROM -0.2619
-2.0645 GARBAGE -0.2619
-1.5873 GO -0.2897
-2.0645 GOODBYE -0.2619
-2.0645 HOW -0.2973
-2.0645 IS -0.2973
-1.7634 ME -0.2619
-2.0645 NAME -0.2619
-2.0645 OLD -0.2935
-2.0645 PHOTO -0.2935
-2.0645 TAKE -0.2973
-2.0645 THANK -0.2858
-1.5873 THE -0.2897
-1.5873 TO -0.2897
-1.7634 WHAT -0.2935
-2.0645 WHERE -0.2935
-1.4624 YOU -0.2536
-2.0645 YOUR -0.2973

\2-grams:
-0.8239 <s> GO 0.0000
-1.3010 <s> GOODBYE 0.0000
-1.3010 <s> HOW 0.0000
-1.3010 <s> TAKE 0.0000
-1.3010 <s> THANK 0.0000
-1.0000 <s> WHAT 0.0000
-1.3010 <s> WHERE 0.0000
-0.3010 A PHOTO 0.0000
-0.3010 ARE YOU -0.0969
-0.3010 BOOKSHELF </s> -0.3010
-0.3010 CAN YOU -0.2430
-0.3010 CUBE </s> -0.3010
-0.3010 DO FOR 0.0000
-0.3010 FOR ME 0.0000
-0.3010 FROM </s> -0.3010
-0.3010 GARBAGE </s> -0.3010
-0.3010 GO TO 0.0000
-0.3010 GOODBYE </s> -0.3010
-0.3010 HOW OLD 0.0000
-0.3010 IS YOUR 0.0000
-0.3010 ME </s> -0.3010
-0.3010 NAME </s> -0.3010
-0.3010 OLD ARE 0.0000
-0.3010 PHOTO FOR 0.0000
-0.3010 TAKE A 0.0000
-0.3010 THANK YOU -0.1761
-0.7782 THE BOOKSHELF 0.0000
-0.7782 THE CUBE 0.0000
-0.7782 THE GARBAGE 0.0000
-0.3010 TO THE 0.0000
-0.6021 WHAT CAN 0.0000
-0.6021 WHAT IS 0.0000
-0.3010 WHERE ARE 0.0000
-0.6021 YOU </s> -0.3010
-0.9031 YOU DO 0.0000
-0.9031 YOU FROM 0.0000
-0.3010 YOUR NAME 0.0000

\3-grams:
-0.3010 <s> GO TO
-0.3010 <s> GOODBYE </s>
-0.3010 <s> HOW OLD
-0.3010 <s> TAKE A
-0.3010 <s> THANK YOU
-0.6021 <s> WHAT CAN
-0.6021 <s> WHAT IS
-0.3010 <s> WHERE ARE
-0.3010 A PHOTO FOR
-0.6021 ARE YOU </s>
-0.6021 ARE YOU FROM
-0.3010 CAN YOU DO
-0.3010 DO FOR ME
-0.3010 FOR ME </s>
-0.3010 GO TO THE
-0.3010 HOW OLD ARE
-0.3010 IS YOUR NAME
-0.3010 OLD ARE YOU
-0.3010 PHOTO FOR ME
-0.3010 TAKE A PHOTO
-0.3010 THANK YOU </s>
-0.3010 THE BOOKSHELF </s>
-0.3010 THE CUBE </s>
-0.3010 THE GARBAGE </s>
-0.7782 TO THE BOOKSHELF
-0.7782 TO THE CUBE
-0.7782 TO THE GARBAGE
-0.3010 WHAT CAN YOU
-0.3010 WHAT IS YOUR
-0.3010 WHERE ARE YOU
-0.3010 YOU DO FOR
-0.3010 YOU FROM </s>
-0.3010 YOUR NAME </s>

\end\
